{
  "architecture": [
    2,
    16,
    16,
    1
  ],
  "layers": [
    {
      "weights": [
        [
          0.0439678194249864,
          0.6133815542373582
        ],
        [
          0.9209895486477535,
          -0.420749244471069
        ],
        [
          0.5322148755959053,
          0.4084397336868253
        ],
        [
          0.3227661144476608,
          -0.7796759021655764
        ],
        [
          -0.9461264424189464,
          -0.23165779091140504
        ],
        [
          0.4927903923327688,
          -0.495232464973556
        ],
        [
          0.003205341136067519,
          -0.3651298189085006
        ],
        [
          0.6926556182568482,
          0.8903878290097786
        ],
        [
          -0.196818126178661,
          0.996894010174042
        ],
        [
          -0.8756144174951066,
          0.6252180008832311
        ],
        [
          0.7506330042565612,
          -0.6981690394460398
        ],
        [
          0.41113723118390144,
          0.11778373720934954
        ],
        [
          0.9103757245217374,
          -0.5799799810195554
        ],
        [
          0.07992670124024737,
          0.7649122136174005
        ],
        [
          0.2775463621195928,
          -0.38160094008334955
        ],
        [
          -0.8362722917305148,
          0.87955209402343
        ]
      ],
      "biases": [
        0.0,
        0.0,
        0.0,
        0.0,
        0.0,
        0.0,
        0.0,
        0.0,
        0.0,
        0.0,
        0.0,
        0.0,
        0.0,
        0.0,
        0.0,
        0.0
      ]
    },
    {
      "weights": [
        [
          -0.0518030577871893,
          0.9926523655644464,
          -0.7167857187597293,
          0.6244085044961281,
          0.6267562434981773,
          0.8399500449952804,
          -0.9643313671233944,
          -0.25561431688513037,
          -0.8966620132792087,
          0.5040696671439278,
          -0.2907165281430535,
          0.9190104376858088,
          -0.25034197300558025,
          0.5487498492771063,
          0.7355773509362031,
          -0.5221068692641024
        ],
        [
          0.11363324841623368,
          0.9147843606556916,
          0.05383554037461313,
          -0.28058436426353417,
          -0.4655992826187909,
          0.5729393851084212,
          -0.6145049967240876,
          0.2077928606963768,
          0.11109285851020378,
          0.10696165117207768,
          -0.7410281263266176,
          0.3171302722038083,
          0.8330584518286817,
          -0.36224201067198436,
          -0.33585361996124163,
          0.8180815216140931
        ],
        [
          0.15669038567545157,
          -0.4548445741070568,
          -0.9804732940997827,
          0.5065388976116993,
          -0.3039920029161107,
          -0.06568219148148957,
          -0.45499403068704813,
          0.26620398542219315,
          0.45796896812751964,
          -0.3804238251138279,
          -0.8499403633446236,
          0.9735810565249419,
          0.8200822395817318,
          -0.9586772230109972,
          0.1283696223087416,
          0.37199665812242344
        ],
        [
          -0.19397450260983806,
          0.4632809452926292,
          0.9196306612876113,
          0.1802931251593538,
          -0.216852334390782,
          -0.6087036878556431,
          -0.49716307281108696,
          -0.6983970302893232,
          -0.7791844322178199,
          -0.5752205692197705,
          0.6840485777448828,
          0.07395592786553551,
          0.6098715497510754,
          0.8403715240286007,
          0.6215693699741562,
          -0.9011141335748125
        ],
        [
          0.8519181373566027,
          -0.8144155637721622,
          0.5419315295194855,
          0.6778870709321045,
          0.3149027376934703,
          -0.1926346349678263,
          -0.8499658623018795,
          -0.829693070902918,
          0.27300541072038875,
          -0.5165913965562579,
          0.06456486818066876,
          -0.46954575812849964,
          -0.673181834796482,
          -0.4095233224449133,
          0.4497335834458611,
          -0.026372528278722607
        ],
        [
          -0.214460405343059,
          -0.027035084031912904,
          0.1079677106125243,
          0.0313353631914981,
          -0.10988208536207877,
          0.934771455218723,
          0.5034643593226564,
          -0.5418777095833116,
          -0.3635105219539909,
          -0.6224011038279686,
          -0.27181573810934245,
          -0.9432439809807533,
          0.48900615540170156,
          0.13577798782950778,
          -0.15463836411108312,
          0.7868730996888356
        ],
        [
          -0.3425073479955181,
          0.15716836108435683,
          0.8595142210213296,
          0.11171947764008072,
          0.22595087160871707,
          -0.2640920404767595,
          0.996195315905581,
          0.5095648200968359,
          -0.3933098847595333,
          -0.2889685563883606,
          0.18301794072127842,
          0.03727257408964291,
          0.046612724818401174,
          -0.6158214071064227,
          0.15140560118294588,
          0.4078940086583833
        ],
        [
          0.529982897322649,
          -0.10123962963169375,
          -0.1088844857266662,
          0.008514987486033743,
          0.07250637634654167,
          -0.05014733295432938,
          -0.9757999286914292,
          -0.4731453331702231,
          0.9756143541363873,
          0.6526405200577818,
          -0.06525396798037786,
          0.5039558608643961,
          -0.5775020561843829,
          -0.4656572178223426,
          0.03525882463367158,
          0.39858976029302684
        ],
        [
          -0.9448716474650289,
          -0.056575570848047985,
          0.8121686920734246,
          0.2245150238879685,
          0.9861825224758753,
          -0.8026247951679926,
          0.8172031614184525,
          0.6747957614852775,
          -0.9476830444431148,
          0.07317097218730972,
          0.5185592312218832,
          -0.5558946599462893,
          0.2986045782257778,
          0.7010083109137317,
          0.5878937411716456,
          -0.1437831676596486
        ],
        [
          -0.8833073118576904,
          0.07834421187370233,
          -0.623840213203515,
          0.07740235719589106,
          -0.4611299878821109,
          -0.30537225395292356,
          0.08746462436433378,
          0.6391714811147122,
          0.9506372871495052,
          -0.1889405561546269,
          -0.9850889366007722,
          0.5003181397114891,
          -0.3214766371113613,
          0.5152555368765892,
          0.661146905929064,
          -0.9329486246938086
        ],
        [
          0.46166507698779524,
          -0.4303419392499537,
          -0.3567115795990443,
          -0.3315054904333745,
          0.07676057274722714,
          -0.513485298697753,
          -0.011063593300647101,
          -0.4333812081435373,
          -0.7507315687097353,
          -0.5000464011176662,
          0.3618774029684835,
          -0.37896562092196184,
          -0.5993868487652934,
          -0.268854124423882,
          -0.5727412029377987,
          0.9689670350394328
        ],
        [
          0.5744772787694763,
          -0.6966920080086594,
          -0.41237009937739955,
          -0.12821310106625372,
          0.056150300762920935,
          -0.2231219592538991,
          0.046647453374004,
          0.5202577248219875,
          -0.6917017301432953,
          0.11844240341569057,
          -0.6710642637839654,
          0.06958320641239335,
          -0.36580070118344654,
          0.6063348930056316,
          0.7620203089947666,
          0.9133844514653198
        ],
        [
          -0.18571333489046538,
          0.23346905762197445,
          -0.6627385183838947,
          0.4232430033523955,
          0.556044403249448,
          -0.14595810253517905,
          -0.3566167721074296,
          0.5161373234271107,
          0.500698499409032,
          0.5986173619107258,
          -0.4226472386915441,
          -0.5147968158762783,
          -0.4987110122684637,
          -0.617960119657839,
          -0.9859736914117874,
          -0.7551500002294738
        ],
        [
          -0.014573155688372808,
          -0.13891030719016917,
          0.7793618368393131,
          -0.24356744820176068,
          -0.6593330491991958,
          0.8617233529191928,
          -0.854367475383202,
          -0.3204592927255687,
          0.5272319236779175,
          -0.35730466025275964,
          0.9279099576100138,
          0.48699342110816146,
          -0.38338681484136194,
          0.7268590379585531,
          0.8435396488725246,
          0.02798966515491852
        ],
        [
          -0.7129011536205871,
          -0.7918246545075276,
          0.6358578317597556,
          0.7759216276384286,
          0.30774470605796833,
          0.5477278515411343,
          0.5873172321535649,
          -0.5257405606401735,
          -0.5735385038763219,
          0.7352347876034269,
          0.6784943003455226,
          -0.12767075932844962,
          -0.45952229283906054,
          -0.8425047649784514,
          -0.19113323135227733,
          0.8179749048736242
        ],
        [
          -0.593244658689472,
          -0.3682951776398058,
          -0.9296299834701143,
          0.1377832529255003,
          -0.8798312492366736,
          0.34979138746872174,
          -0.015936472953475667,
          -0.15366240426836275,
          -0.4813599930805246,
          -0.394838177422725,
          0.7860498841427173,
          0.8815040612570686,
          0.5039587231711156,
          -0.5740442396797392,
          -0.583895908983417,
          -0.2744727024860705
        ]
      ],
      "biases": [
        0.0,
        0.0,
        0.0,
        0.0,
        0.0,
        0.0,
        0.0,
        0.0,
        0.0,
        0.0,
        0.0,
        0.0,
        0.0,
        0.0,
        0.0,
        0.0
      ]
    },
    {
      "weights": [
        [
          0.7516809211253612,
          0.8856881886111736,
          -0.540033418471064,
          0.26683306458646805,
          -0.24052676452182253,
          -0.08886760981447384,
          -0.6047439075256225,
          0.44314948470315585,
          0.564121784643028,
          0.8789282677197012,
          -0.03162931296760041,
          -0.11657215932063592,
          0.29258552324558695,
          -0.7374139989066812,
          0.7569233095046133,
          0.5359715729021421
        ]
      ],
      "biases": [
        0.0
      ]
    }
  ]
}