{
  "architecture": [
    2,
    16,
    32,
    16,
    1
  ],
  "layers": [
    {
      "weights": [
        [
          0.0439678194249864,
          0.6133815542373582
        ],
        [
          0.9209895486477535,
          -0.420749244471069
        ],
        [
          0.5322148755959053,
          0.4084397336868253
        ],
        [
          0.3227661144476608,
          -0.7796759021655764
        ],
        [
          -0.9461264424189464,
          -0.23165779091140504
        ],
        [
          0.4927903923327688,
          -0.495232464973556
        ],
        [
          0.003205341136067519,
          -0.3651298189085006
        ],
        [
          0.6926556182568482,
          0.8903878290097786
        ],
        [
          -0.196818126178661,
          0.996894010174042
        ],
        [
          -0.8756144174951066,
          0.6252180008832311
        ],
        [
          0.7506330042565612,
          -0.6981690394460398
        ],
        [
          0.41113723118390144,
          0.11778373720934954
        ],
        [
          0.9103757245217374,
          -0.5799799810195554
        ],
        [
          0.07992670124024737,
          0.7649122136174005
        ],
        [
          0.2775463621195928,
          -0.38160094008334955
        ],
        [
          -0.8362722917305148,
          0.87955209402343
        ]
      ],
      "biases": [
        0.0,
        0.0,
        0.0,
        0.0,
        0.0,
        0.0,
        0.0,
        0.0,
        0.0,
        0.0,
        0.0,
        0.0,
        0.0,
        0.0,
        0.0,
        0.0
      ]
    },
    {
      "weights": [
        [
          -0.0518030577871893,
          0.9926523655644464,
          -0.7167857187597293,
          0.6244085044961281,
          0.6267562434981773,
          0.8399500449952804,
          -0.9643313671233944,
          -0.25561431688513037,
          -0.8966620132792087,
          0.5040696671439278,
          -0.2907165281430535,
          0.9190104376858088,
          -0.25034197300558025,
          0.5487498492771063,
          0.7355773509362031,
          -0.5221068692641024
        ],
        [
          0.11363324841623368,
          0.9147843606556916,
          0.05383554037461313,
          -0.28058436426353417,
          -0.4655992826187909,
          0.5729393851084212,
          -0.6145049967240876,
          0.2077928606963768,
          0.11109285851020378,
          0.10696165117207768,
          -0.7410281263266176,
          0.3171302722038083,
          0.8330584518286817,
          -0.36224201067198436,
          -0.33585361996124163,
          0.8180815216140931
        ],
        [
          0.15669038567545157,
          -0.4548445741070568,
          -0.9804732940997827,
          0.5065388976116993,
          -0.3039920029161107,
          -0.06568219148148957,
          -0.45499403068704813,
          0.26620398542219315,
          0.45796896812751964,
          -0.3804238251138279,
          -0.8499403633446236,
          0.9735810565249419,
          0.8200822395817318,
          -0.9586772230109972,
          0.1283696223087416,
          0.37199665812242344
        ],
        [
          -0.19397450260983806,
          0.4632809452926292,
          0.9196306612876113,
          0.1802931251593538,
          -0.216852334390782,
          -0.6087036878556431,
          -0.49716307281108696,
          -0.6983970302893232,
          -0.7791844322178199,
          -0.5752205692197705,
          0.6840485777448828,
          0.07395592786553551,
          0.6098715497510754,
          0.8403715240286007,
          0.6215693699741562,
          -0.9011141335748125
        ],
        [
          0.8519181373566027,
          -0.8144155637721622,
          0.5419315295194855,
          0.6778870709321045,
          0.3149027376934703,
          -0.1926346349678263,
          -0.8499658623018795,
          -0.829693070902918,
          0.27300541072038875,
          -0.5165913965562579,
          0.06456486818066876,
          -0.46954575812849964,
          -0.673181834796482,
          -0.4095233224449133,
          0.4497335834458611,
          -0.026372528278722607
        ],
        [
          -0.214460405343059,
          -0.027035084031912904,
          0.1079677106125243,
          0.0313353631914981,
          -0.10988208536207877,
          0.934771455218723,
          0.5034643593226564,
          -0.5418777095833116,
          -0.3635105219539909,
          -0.6224011038279686,
          -0.27181573810934245,
          -0.9432439809807533,
          0.48900615540170156,
          0.13577798782950778,
          -0.15463836411108312,
          0.7868730996888356
        ],
        [
          -0.3425073479955181,
          0.15716836108435683,
          0.8595142210213296,
          0.11171947764008072,
          0.22595087160871707,
          -0.2640920404767595,
          0.996195315905581,
          0.5095648200968359,
          -0.3933098847595333,
          -0.2889685563883606,
          0.18301794072127842,
          0.03727257408964291,
          0.046612724818401174,
          -0.6158214071064227,
          0.15140560118294588,
          0.4078940086583833
        ],
        [
          0.529982897322649,
          -0.10123962963169375,
          -0.1088844857266662,
          0.008514987486033743,
          0.07250637634654167,
          -0.05014733295432938,
          -0.9757999286914292,
          -0.4731453331702231,
          0.9756143541363873,
          0.6526405200577818,
          -0.06525396798037786,
          0.5039558608643961,
          -0.5775020561843829,
          -0.4656572178223426,
          0.03525882463367158,
          0.39858976029302684
        ],
        [
          -0.9448716474650289,
          -0.056575570848047985,
          0.8121686920734246,
          0.2245150238879685,
          0.9861825224758753,
          -0.8026247951679926,
          0.8172031614184525,
          0.6747957614852775,
          -0.9476830444431148,
          0.07317097218730972,
          0.5185592312218832,
          -0.5558946599462893,
          0.2986045782257778,
          0.7010083109137317,
          0.5878937411716456,
          -0.1437831676596486
        ],
        [
          -0.8833073118576904,
          0.07834421187370233,
          -0.623840213203515,
          0.07740235719589106,
          -0.4611299878821109,
          -0.30537225395292356,
          0.08746462436433378,
          0.6391714811147122,
          0.9506372871495052,
          -0.1889405561546269,
          -0.9850889366007722,
          0.5003181397114891,
          -0.3214766371113613,
          0.5152555368765892,
          0.661146905929064,
          -0.9329486246938086
        ],
        [
          0.46166507698779524,
          -0.4303419392499537,
          -0.3567115795990443,
          -0.3315054904333745,
          0.07676057274722714,
          -0.513485298697753,
          -0.011063593300647101,
          -0.4333812081435373,
          -0.7507315687097353,
          -0.5000464011176662,
          0.3618774029684835,
          -0.37896562092196184,
          -0.5993868487652934,
          -0.268854124423882,
          -0.5727412029377987,
          0.9689670350394328
        ],
        [
          0.5744772787694763,
          -0.6966920080086594,
          -0.41237009937739955,
          -0.12821310106625372,
          0.056150300762920935,
          -0.2231219592538991,
          0.046647453374004,
          0.5202577248219875,
          -0.6917017301432953,
          0.11844240341569057,
          -0.6710642637839654,
          0.06958320641239335,
          -0.36580070118344654,
          0.6063348930056316,
          0.7620203089947666,
          0.9133844514653198
        ],
        [
          -0.18571333489046538,
          0.23346905762197445,
          -0.6627385183838947,
          0.4232430033523955,
          0.556044403249448,
          -0.14595810253517905,
          -0.3566167721074296,
          0.5161373234271107,
          0.500698499409032,
          0.5986173619107258,
          -0.4226472386915441,
          -0.5147968158762783,
          -0.4987110122684637,
          -0.617960119657839,
          -0.9859736914117874,
          -0.7551500002294738
        ],
        [
          -0.014573155688372808,
          -0.13891030719016917,
          0.7793618368393131,
          -0.24356744820176068,
          -0.6593330491991958,
          0.8617233529191928,
          -0.854367475383202,
          -0.3204592927255687,
          0.5272319236779175,
          -0.35730466025275964,
          0.9279099576100138,
          0.48699342110816146,
          -0.38338681484136194,
          0.7268590379585531,
          0.8435396488725246,
          0.02798966515491852
        ],
        [
          -0.7129011536205871,
          -0.7918246545075276,
          0.6358578317597556,
          0.7759216276384286,
          0.30774470605796833,
          0.5477278515411343,
          0.5873172321535649,
          -0.5257405606401735,
          -0.5735385038763219,
          0.7352347876034269,
          0.6784943003455226,
          -0.12767075932844962,
          -0.45952229283906054,
          -0.8425047649784514,
          -0.19113323135227733,
          0.8179749048736242
        ],
        [
          -0.593244658689472,
          -0.3682951776398058,
          -0.9296299834701143,
          0.1377832529255003,
          -0.8798312492366736,
          0.34979138746872174,
          -0.015936472953475667,
          -0.15366240426836275,
          -0.4813599930805246,
          -0.394838177422725,
          0.7860498841427173,
          0.8815040612570686,
          0.5039587231711156,
          -0.5740442396797392,
          -0.583895908983417,
          -0.2744727024860705
        ],
        [
          0.7516809211253612,
          0.8856881886111736,
          -0.540033418471064,
          0.26683306458646805,
          -0.24052676452182253,
          -0.08886760981447384,
          -0.6047439075256225,
          0.44314948470315585,
          0.564121784643028,
          0.8789282677197012,
          -0.03162931296760041,
          -0.11657215932063592,
          0.29258552324558695,
          -0.7374139989066812,
          0.7569233095046133,
          0.5359715729021421
        ],
        [
          -0.5445212172664933,
          -0.19631479116615735,
          -0.02793649830660927,
          0.7037932704628358,
          0.3854888199934239,
          -0.5216749857859151,
          0.9022813496870523,
          0.8598177166897383,
          0.7156032945743811,
          -0.014645933932107447,
          -0.05359165224223772,
          -0.18696356008694348,
          0.955458248413056,
          -0.03704495579799616,
          0.9190208761828071,
          -0.6320725754393925
        ],
        [
          -0.9393977334409134,
          -0.055675310955523694,
          -0.6024179882287832,
          -0.48684800942757955,
          -0.9279970398976016,
          -0.7511757419839906,
          -0.11778631725848854,
          -0.8249107018255057,
          -0.40725460874429387,
          0.22500188121776277,
          -0.4800942908028869,
          -0.3772505276306184,
          -0.2431569320356115,
          -0.4734455971532734,
          0.1267500971832054,
          0.553695360537559
        ],
        [
          -0.9377689106879001,
          0.07293290324409685,
          0.06948474961245577,
          0.8365166943027249,
          0.40819019162021464,
          -0.45063516058690056,
          0.2321627043411465,
          0.8013334942120698,
          0.9028393955867156,
          0.5350112840733279,
          -0.7848486893839666,
          -0.25613791685950105,
          -0.04260020782868357,
          -0.34146859045542066,
          0.5173208712704649,
          -0.01403478731373542
        ],
        [
          0.9570976826507209,
          -0.984349524961065,
          0.6158101975280672,
          -0.7728376336646281,
          0.03716677110957223,
          -0.7022543124624363,
          -0.23541335589917622,
          0.22262070414499546,
          0.9176142227518549,
          -0.9182403875337262,
          -0.2165411421869634,
          -0.780996074132406,
          0.4859780290868252,
          -0.7128165267508584,
          -0.6061766960081421,
          0.6176083004842221
        ],
        [
          -0.9058361995463207,
          0.77062485876131,
          -0.4635988620191125,
          0.9921400784417065,
          -0.7875902239470647,
          -0.8076813498069966,
          -0.04790715544886548,
          -0.38210089817958837,
          0.2881509259422044,
          -0.3943962662527123,
          -0.3386060960206525,
          -0.9667144501589715,
          -0.822958418968408,
          -0.9937766099821683,
          -0.07728268051375209,
          0.7519673604720691
        ],
        [
          0.073665570516253,
          -0.35325076079504925,
          -0.08154699316111702,
          0.5314009943186067,
          0.7411082906609519,
          -0.8137259850769467,
          0.2929364363559721,
          -0.4061847536644929,
          0.8582045156191291,
          0.44983260135382297,
          0.18018288658566317,
          0.3321846597489633,
          0.5240273022210407,
          -0.8580426621846691,
          -0.35555644810007503,
          -0.9219758532526703
        ],
        [
          -0.6917155110544972,
          0.8554391257872613,
          0.14420102057513629,
          -0.5993001479761837,
          -0.4100315906329368,
          -0.16114512392377844,
          -0.8293394132265954,
          0.6296962762674168,
          -0.2378214180358913,
          -0.8872564511106802,
          0.029237082750900756,
          -0.17247167530863994,
          0.5259982597056105,
          -0.47318824266016546,
          -0.523269793946082,
          0.003228645541323738
        ],
        [
          -0.190417385067003,
          -0.741254347985306,
          0.47094019088152184,
          0.7320995678218016,
          0.6621752415826692,
          0.315500577053192,
          -0.058211441118121154,
          0.5808197250581317,
          -0.5779658761570075,
          -0.8020789498862972,
          -0.5900230444671759,
          0.061215124545167754,
          -0.5836340868495213,
          -0.12852246515055743,
          0.625091469838654,
          0.2352527387805401
        ],
        [
          -0.6020777827425139,
          -0.7562623880908257,
          -0.9885403177264454,
          -0.8977349864133686,
          -0.47689683931427806,
          0.42407604100912155,
          0.6589238111444986,
          -0.22732614418546238,
          -0.9083637962597797,
          0.11926218154135171,
          0.8967795039082451,
          -0.9695318933771617,
          0.2577713361587666,
          0.9962390773961276,
          -0.35234010665881277,
          0.1837399798831847
        ],
        [
          0.6222395715558624,
          0.3321661783016574,
          -0.6545862856038367,
          0.57258809146841,
          0.1717999221154869,
          0.3203384029422591,
          0.19782400486909912,
          0.6514371077085874,
          0.14294076625325092,
          0.8462599582448498,
          -0.7787539492802777,
          -0.9522714481032042,
          -0.724839784889759,
          0.014948891893786342,
          0.4371564156539378,
          0.8351975170752692
        ],
        [
          -0.9854286478549459,
          -0.9843957398362466,
          -0.23491267300414131,
          0.31461061089295184,
          -0.2021780297247302,
          -0.4403107137761675,
          -0.5947582849754849,
          0.42542614069736984,
          0.21307092814718032,
          0.9052193979599727,
          -0.34573603942997266,
          -0.04788688985974954,
          0.9241943422296115,
          0.3996343517557621,
          -0.4772688789547952,
          0.45766813897499903
        ],
        [
          -0.10552903310354989,
          -0.820784014880324,
          -0.7895584367535369,
          -0.0035904161739477303,
          -0.3772462591203545,
          -0.4808193368096694,
          0.44661717981951465,
          -0.48454010004997783,
          -0.0980597844582205,
          0.016881382328885364,
          -0.9840759865486288,
          0.6083049162919698,
          -0.4646219052519953,
          -0.6765202886741184,
          0.02903327662120736,
          -0.5736209734609397
        ],
        [
          -0.9353992289661577,
          -0.7725620610299824,
          -0.9194416971786947,
          -0.29128894558592555,
          -0.34711877662901114,
          -0.5803589149389086,
          -0.6500491177609926,
          0.6901421685455578,
          0.15139728752916892,
          0.21350934533215304,
          -0.9808412717514168,
          0.8464516379277864,
          -0.9352481557093242,
          0.5279393466690134,
          0.3074438789455689,
          -0.17812871314642198
        ],
        [
          -0.32963045657170653,
          0.08242661454848066,
          0.16258744725336394,
          0.6856092959554523,
          -0.8865308608638753,
          -0.8216900965047558,
          0.24903194856446143,
          -0.4317574684996779,
          0.16007902933522988,
          -0.2344295583137821,
          -0.9316949374140895,
          0.6475041253300549,
          -0.626318010571683,
          -0.33282080538409087,
          0.4870176339687413,
          0.8280377049817302
        ],
        [
          0.7128982445649374,
          0.8593000020678583,
          -0.36084791289599827,
          -0.5328512852832361,
          -0.08255824503356424,
          0.6557189120816447,
          0.2983705064106672,
          0.25006912631889366,
          0.4121779116194926,
          -0.5681661789279515,
          0.13370750247123575,
          -0.14515996113428797,
          0.7611223598684986,
          -0.38047476910850864,
          0.08873710498607856,
          0.2648365804920991
        ]
      ],
      "biases": [
        0.0,
        0.0,
        0.0,
        0.0,
        0.0,
        0.0,
        0.0,
        0.0,
        0.0,
        0.0,
        0.0,
        0.0,
        0.0,
        0.0,
        0.0,
        0.0,
        0.0,
        0.0,
        0.0,
        0.0,
        0.0,
        0.0,
        0.0,
        0.0,
        0.0,
        0.0,
        0.0,
        0.0,
        0.0,
        0.0,
        0.0,
        0.0
      ]
    },
    {
      "weights": [
        [
          0.41151936008032597,
          0.5742517341457056,
          0.49517044917058217,
          -0.7336006169458424,
          0.9308072675333909,
          -0.9252769946332497,
          0.46306268816425655,
          -0.3924928339396323,
          -0.7988959389188313,
          -0.27505663653610424,
          -0.7719207778551995,
          -0.5775755953831159,
          0.9337468458302116,
          0.6241701357801637,
          -0.2598312920815604,
          -0.012036623877526242,
          0.1970128040781185,
          -0.36471445966438965,
          -0.7303936658127044,
          -0.11758055049414629,
          0.6910789530682959,
          0.9209091099754991,
          0.21580647269464137,
          0.6031695443146707,
          -0.1627922202696277,
          0.5713709777358311,
          0.6198904447693507,
          0.8054107550394236,
          -0.6134146337391537,
          0.049375513817083716,
          -0.85232027749864,
          0.16323644292721817
        ],
        [
          -0.05464636871478601,
          0.18222548503044655,
          0.06407624742627749,
          -0.31403289065439677,
          -0.718580787531325,
          -0.3575523352007739,
          0.5605033973612319,
          -0.4476971914709118,
          0.9310879814662194,
          0.6775656860242749,
          -0.4725280865054675,
          -0.09503635186426695,
          0.5968183827009459,
          -0.9818335842801926,
          0.5399819487574966,
          -0.18658387674710264,
          0.3498676320312357,
          -0.9821832148497907,
          0.29865665352920745,
          -0.8855743038081385,
          -0.43164454218791315,
          0.22753087891841917,
          0.26785255428811716,
          -0.27659301599451935,
          -0.4843264444050801,
          -0.27024203981536266,
          -0.39632127144124785,
          -0.5446255351244613,
          -0.5052401270696749,
          -0.006607293034105677,
          0.5042578939878533,
          0.6446376000710692
        ],
        [
          -0.2119965456602131,
          0.8891245831180505,
          -0.3061033507850073,
          0.669552484361746,
          0.6281186971131074,
          0.505973711050038,
          0.8199284061894037,
          0.20788603490805424,
          0.7620979288768224,
          -0.45378247023798823,
          0.012706164803329312,
          0.13823024827385177,
          0.06614784619470937,
          -0.8802804201089223,
          -0.4854667641114061,
          0.2632793010799457,
          -0.2657426444875075,
          0.4036380437347675,
          0.46674274240594604,
          0.10589971872022663,
          -0.73486184069333,
          -0.1073418850187482,
          0.8446167385912493,
          -0.37045924651210327,
          -0.8203339336122326,
          0.5374417244566296,
          -0.26530237445209526,
          -0.6013255819785763,
          0.025994268025842926,
          0.829282645243882,
          0.12374241254235341,
          -0.5769203526915296
        ],
        [
          -0.9827928189888,
          -0.1560353920532691,
          -0.47325317905808273,
          0.9265648684259127,
          0.7666680167320439,
          0.954734962032499,
          0.8268762763447652,
          -0.4397503139343726,
          0.2708370526945725,
          0.10355217016117879,
          0.06479536567298627,
          0.08245790869583813,
          -0.5649915096809939,
          -0.6896711990301652,
          -0.8898987685222572,
          0.3797148006897484,
          -0.6664859733449573,
          0.728764677261841,
          0.29711736529740795,
          -0.38708866965451905,
          0.7896466875797503,
          -0.8156300477373943,
          -0.5946248441581421,
          0.5891079341322045,
          -0.25917837737116156,
          0.8149157507032179,
          -0.015239701375211023,
          -0.9998591532209062,
          0.8604394261743391,
          0.9761322369962313,
          -0.09580825891440203,
          0.42958296390666617
        ],
        [
          0.3657908911342618,
          -0.7969332240723965,
          0.5111005802633808,
          -0.016113901245463857,
          0.3884033192857259,
          -0.9905783605921208,
          -0.18255425309908757,
          -0.6056456325526602,
          0.8535654217417092,
          -0.9408336115453872,
          -0.9494246502327048,
          -0.3497705070213397,
          0.6340692010737905,
          -0.6138169440433123,
          0.3647686374266277,
          0.5754954751501016,
          0.19114525912627323,
          -0.22670250069170983,
          0.4897085723954717,
          -0.761600496900751,
          -0.46448053658567345,
          0.7291252265064283,
          -0.5698631077652474,
          -0.48391114237183364,
          -0.7274399196778984,
          0.06746020862813795,
          0.8562090496058647,
          -0.7106673729654547,
          0.027149428518438823,
          0.7870488030483584,
          -0.8256551380858614,
          -0.03193463533036356
        ],
        [
          -0.4001337345053826,
          0.10071182856960936,
          0.8838933470900923,
          0.8738090685882485,
          -0.3358999105325253,
          -0.5959239617403975,
          0.026551376329178034,
          0.8861992843210502,
          -0.51679071339277,
          -0.4550990916201465,
          -0.22570760575677595,
          0.8766993279743567,
          -0.40605714669147375,
          -0.613268709130109,
          -0.19708730821278486,
          0.08521488814455624,
          -0.5546387245218927,
          0.5488076510643134,
          -0.6097470024097107,
          0.05613174706719448,
          -0.28468937162820485,
          0.767189754003591,
          0.9507848515292576,
          -0.07012465043128358,
          -0.2009716104360335,
          -0.1906582374226704,
          0.2549034341159946,
          -0.6776181128860221,
          -0.922294026344455,
          -0.4696505431775986,
          0.1376776308854406,
          -0.31170230751427175
        ],
        [
          -0.6738972466261541,
          0.101704519908983,
          0.9222599190774297,
          0.8865133680425876,
          -0.5068842742870574,
          -0.6139410891284656,
          0.365621704089105,
          0.7192010297773404,
          -0.7540857215172567,
          0.031883454654979326,
          -0.37182526713795383,
          0.9267984581275741,
          0.8932580807995798,
          -0.5096646081250962,
          0.9167934136245679,
          -0.7118775494987908,
          -0.4988635626072111,
          0.8766551348320621,
          -0.3106538970556747,
          0.9090042772222173,
          0.15631942013602496,
          0.2603317512940586,
          0.8392917181965427,
          0.4667844512432122,
          -0.35205952705658294,
          -0.1588465297654733,
          -0.29896599991021655,
          -0.5229310510577296,
          -0.3554997422350177,
          0.4070084016912934,
          -0.13713528164339572,
          -0.8890067909837969
        ],
        [
          0.6259862396329043,
          0.32952042003470083,
          0.8339665242830143,
          0.14960670569817025,
          -0.31711465824715,
          0.5951421471466778,
          0.4002946789461437,
          0.1579167828222987,
          0.20470713037401778,
          -0.2619499064259525,
          -0.442398951171701,
          -0.9335528757319442,
          -0.1305091009847208,
          0.01993929815790385,
          -0.6517486866720852,
          0.8652305440658155,
          0.8286903750877912,
          -0.3508442308714146,
          -0.7330565957365647,
          -0.8420233551923573,
          0.2622914687342768,
          0.5213704416440605,
          -0.14112220001399134,
          0.5690871567481208,
          -0.5039895020069605,
          -0.34371425101810327,
          -0.5466531213378245,
          -0.9566146042156356,
          -0.9857291443853888,
          0.7745395241132436,
          -0.7144802424798904,
          -0.8195113190479548
        ],
        [
          0.2964446575213302,
          -0.34401008740003314,
          0.08006833103303324,
          -0.9386313413640031,
          -0.8823804862861719,
          -0.040088942632273694,
          0.9075837452504403,
          -0.6508917085652182,
          -0.7126518956723691,
          0.5429115805481981,
          0.5074683586734112,
          0.026413471330338112,
          0.45628401168624255,
          -0.32783797671674497,
          -0.5434722330300066,
          -0.34949156343794896,
          -0.4414397496772673,
          0.14430648816864133,
          0.5031723176520799,
          0.617634274958107,
          0.32459215302306577,
          -0.6187646903223141,
          0.42071789820182004,
          -0.5061841986966127,
          -0.7288050333532574,
          -0.14903464233186625,
          0.9882270320589093,
          -0.1889471694782041,
          0.35785226067986287,
          0.5578758284453482,
          0.271638429136172,
          -0.6575830323026919
        ],
        [
          0.30689811132191025,
          0.36018496408689393,
          -0.4570389793538665,
          -0.7583484697832441,
          -0.8846023202104538,
          0.3917782032188899,
          0.8330257164856145,
          -0.9631189128934026,
          -0.17976130308386096,
          0.5853140977434779,
          0.7087335756191095,
          0.5364273905824675,
          -0.6830068324144303,
          -0.2966293278830541,
          -0.8877934767781901,
          -0.22589867373992067,
          0.48898655050344964,
          -0.4772681738226521,
          0.9452069049600877,
          -0.4783813420692642,
          -0.015333707613622849,
          0.09044620664477088,
          0.041913862648794264,
          0.42663181195448874,
          0.016676233405752416,
          0.6151387846014753,
          0.1614060040889802,
          0.9136633652487101,
          0.6796602648555194,
          0.7779541751479446,
          0.8841155969897119,
          0.3061478212157729
        ],
        [
          -0.1547216413440513,
          -0.6403809628179884,
          -0.5102992236105905,
          -0.007251607267638072,
          0.5188153988605471,
          -0.04120997691251094,
          -0.895344390234984,
          -0.42523611254742266,
          0.09078860842178882,
          -0.6460264481473028,
          0.7767201908094599,
          -0.386811955872167,
          -0.774402172755267,
          0.8288243492446663,
          -0.07956630199211778,
          -0.5831400792931416,
          -0.8144754391198428,
          0.05018824989293291,
          0.8747098186544122,
          -0.36954897619265825,
          -0.27530887197791265,
          0.723395280407215,
          0.29292102965776756,
          0.5500990555094996,
          -0.9954642085952787,
          0.7204544888179794,
          0.9774452511700755,
          -0.23124021871249822,
          0.6194695725816826,
          -0.7513501024462221,
          -0.4961848892875076,
          0.8407302425187562
        ],
        [
          -0.5559861626150595,
          -0.24061841509066118,
          -0.36433158625733664,
          -0.7050186050211276,
          0.8081366699406718,
          -0.8324512997231595,
          0.9026178581122435,
          -0.32239691666787373,
          0.32441471742455463,
          -0.3201793056119602,
          -0.41425415244458663,
          0.19753629986368804,
          0.8628023445768813,
          0.26863966873136835,
          -0.5833760889980479,
          0.23371809371763042,
          0.3556673243339876,
          0.9651850140398781,
          -0.21753455697350899,
          0.812824986749731,
          -0.07772019660051965,
          0.9821135827529781,
          0.1059943425912131,
          -0.44890041810584735,
          0.4321689218558471,
          0.8400094434134424,
          -0.7073319439186412,
          -0.24331722708325842,
          -0.047142515793156425,
          0.8412760354959863,
          0.8251731142607672,
          -0.502942916568297
        ],
        [
          0.28936144366610783,
          0.3010853310941899,
          0.14054248913063194,
          -0.8937203125856221,
          -0.16063227601428687,
          0.8177892179231216,
          -0.456443957496697,
          0.8820033848005373,
          0.5343470763239522,
          -0.20547223312906748,
          -0.5388213331622751,
          -0.5881096044263543,
          0.7437045606888322,
          0.2312969492717536,
          0.6534393813735402,
          -0.15996148956509848,
          0.27926519418356377,
          -0.3471299976514888,
          -0.6776632713815758,
          -0.08028952960874003,
          -0.5940410337132629,
          -0.05001801718995891,
          -0.3010178108489998,
          -0.6539070032336642,
          -0.38766412966799124,
          0.7883759034026752,
          0.7552188570363516,
          0.735365008237463,
          -0.5627209261012205,
          -0.08169354625956404,
          0.33888697678218227,
          -0.6565290901793988
        ],
        [
          -0.22031167970094478,
          0.535782073202741,
          0.9116479731980458,
          -0.7044135597099013,
          0.011285205423443356,
          -0.008222865245413269,
          -0.1290233145761126,
          0.7558220505372442,
          -0.9695905257554072,
          0.6395626915257873,
          0.6659297040713739,
          -0.24921892772019705,
          0.507423286199508,
          0.5490210655541985,
          -0.17064084368453303,
          -0.7476970361788666,
          -0.5463901960029969,
          0.881775705619261,
          -0.28736649666918623,
          0.5640693931898622,
          -0.830850261322879,
          0.6006069123516775,
          -0.4543970439667102,
          0.32628088396114174,
          -0.4207230085529583,
          0.4645043876380104,
          0.40181901545969323,
          0.9697763272944364,
          -0.5964662654665267,
          -0.16491588299235604,
          0.7871128473230304,
          0.2626765711743526
        ],
        [
          -0.7991395098569654,
          -0.7979509381083523,
          0.1871246948228269,
          -0.7294473728184749,
          -0.8506263308606077,
          -0.09386409272726404,
          -0.42129614073983457,
          -0.05064111203663102,
          -0.032815350360292816,
          0.31953983109313966,
          -0.6794805817268754,
          0.8590953198593736,
          -0.840338631106226,
          0.5982631052833627,
          -0.17707734144798315,
          -0.0715918378502669,
          0.16251760685958772,
          -0.2072414865329253,
          -0.06503861693319268,
          0.9449435414344389,
          0.19459818267980955,
          0.10284325894714685,
          -0.4807110207818994,
          0.8868167116937371,
          0.32899599301780635,
          -0.38756627691964196,
          0.9292837891136987,
          -0.4695103121391706,
          0.8938975349513001,
          0.8980767732219219,
          0.6157283131586757,
          -0.42606140778796564
        ],
        [
          0.8962268609267332,
          0.008280304492705781,
          -0.9794372448918185,
          -0.06774775019605683,
          0.07410831771789561,
          -0.1740617388524499,
          -0.984532137699502,
          -0.6816640866030994,
          -0.551900174778351,
          -0.33493516505182996,
          -0.4804280898008879,
          0.18377055151277277,
          0.5851150058680152,
          0.18013481459165948,
          0.027439890429347358,
          -0.544212453443174,
          -0.1346812275188578,
          -0.3698078345116045,
          -0.19880388432565077,
          -0.4316350516952696,
          0.9492154521983982,
          0.0813531435755197,
          -0.1756894962724831,
          0.8345097590297852,
          0.18846088206968625,
          0.7154169954188692,
          0.6190492253415536,
          0.9252910156279235,
          -0.4568610273563638,
          0.3368488094924955,
          0.7840988519602572,
          -0.20766687013668794
        ]
      ],
      "biases": [
        0.0,
        0.0,
        0.0,
        0.0,
        0.0,
        0.0,
        0.0,
        0.0,
        0.0,
        0.0,
        0.0,
        0.0,
        0.0,
        0.0,
        0.0,
        0.0
      ]
    },
    {
      "weights": [
        [
          0.7842434691917781,
          -0.8628506746045645,
          -0.8376671691794739,
          -0.5800756990072409,
          -0.33240645328094587,
          -0.5312005102471973,
          -0.4764554262112648,
          0.062243348859565284,
          0.18077779727718268,
          -0.38520024762142513,
          0.7890288248147963,
          0.977626396675439,
          0.9472647425563177,
          0.4461787569172335,
          0.9172917041087805,
          0.4909806012393767
        ]
      ],
      "biases": [
        0.0
      ]
    }
  ]
}